{
  "version": "1.0.0-ham10000-trained",
  "trainedOn": "HAM10000 (hawking32/ham10000_ttv)",
  "mode": "full",
  "splitRatio": "85/15 stratified",
  "trainSize": 4760,
  "testSize": 840,
  "trainDate": "2026-03-22T14:32:21.364Z",
  "metrics": {
    "accuracy": 0.369,
    "perClass": {
      "akiec": {
        "sensitivity": 0.024,
        "specificity": 0.983,
        "precision": 0.2,
        "f1": 0.043,
        "nTest": 126
      },
      "bcc": {
        "sensitivity": 0.14,
        "specificity": 0.945,
        "precision": 0.356,
        "f1": 0.201,
        "nTest": 150
      },
      "bkl": {
        "sensitivity": 0.593,
        "specificity": 0.757,
        "precision": 0.346,
        "f1": 0.437,
        "nTest": 150
      },
      "df": {
        "sensitivity": 0.638,
        "specificity": 0.746,
        "precision": 0.264,
        "f1": 0.373,
        "nTest": 105
      },
      "mel": {
        "sensitivity": 0,
        "specificity": 1,
        "precision": 0,
        "f1": 0,
        "nTest": 54
      },
      "nv": {
        "sensitivity": 0.727,
        "specificity": 0.849,
        "precision": 0.512,
        "f1": 0.601,
        "nTest": 150
      },
      "vasc": {
        "sensitivity": 0.2,
        "specificity": 0.971,
        "precision": 0.5,
        "f1": 0.286,
        "nTest": 105
      }
    }
  },
  "featureNames": [
    "asymmetry",
    "borderScore",
    "colorCount",
    "diameterMm",
    "hasWhite",
    "hasRed",
    "hasLightBrown",
    "hasDarkBrown",
    "hasBlueGray",
    "hasBlack",
    "contrast",
    "homogeneity",
    "entropy",
    "correlation",
    "hasIrregularNetwork",
    "hasIrregularGlobules",
    "hasStreaks",
    "hasBlueWhiteVeil",
    "hasRegressionStructures",
    "structuralScore"
  ],
  "classNames": [
    "akiec",
    "bcc",
    "bkl",
    "df",
    "mel",
    "nv",
    "vasc"
  ],
  "classLabels": {
    "akiec": "Actinic Keratosis / Intraepithelial Carcinoma",
    "bcc": "Basal Cell Carcinoma",
    "bkl": "Benign Keratosis-like Lesion",
    "df": "Dermatofibroma",
    "mel": "Melanoma",
    "nv": "Melanocytic Nevus",
    "vasc": "Vascular Lesion"
  },
  "weights": [
    [
      -0.05289214782266293,
      0.038857821272940754,
      0.11115824156434612,
      -0.007874630092630133,
      0.2327593622182341,
      -0.2705840587718425,
      0.14006534183674468,
      0.0795124197687144,
      -0.07595229421284008,
      -0.20462682610314803,
      66.5914263105804,
      1.7094081947590285,
      0.22243338260294404,
      -0.882523318338627,
      0.07143256241217442,
      -0.9934127561292315,
      0.2607405007443795,
      -0.6009125238544608,
      -0.32553843797025095,
      -1.2838132758589922
    ],
    [
      0.11305096805260025,
      0.06998778679651801,
      -0.04984387100814112,
      -0.0036474073960099896,
      0.5904489125683928,
      -0.36481229486178984,
      0.19305184137820364,
      -0.11158075971844575,
      0.21260128316001808,
      0.14685839018371682,
      -86.44411184095172,
      -0.1917094548875033,
      0.13871564694601854,
      0.14130034355816898,
      0.10822660717293707,
      0.10810643242453442,
      -0.7246752113704266,
      0.2056842798189342,
      -0.44350305345653274,
      -1.61274165145762
    ],
    [
      0.05297964961748327,
      0.04785173545480878,
      0.21458015697395538,
      0.017915663794411733,
      -0.7620966544803811,
      -0.2737849835054215,
      0.317683164563671,
      0.12133809633017774,
      0.062492529556397426,
      0.01287021366587263,
      -53.12978534699344,
      -0.3944256262078033,
      0.6751059001461146,
      1.1435563785103762,
      -0.15040517697410896,
      -0.26685937863092785,
      -0.11890027244695321,
      0.2774233453233264,
      -0.9560046125545267,
      -1.1139789681190857
    ],
    [
      -0.005974584284611549,
      0.04751861494105357,
      -0.09499457082346047,
      0.013390159330900618,
      -0.12027319448558539,
      0.031873095594922754,
      -0.06568701715003034,
      -0.15323592920575574,
      0.010880508339285172,
      0.17144193915718473,
      -96.18962461570347,
      0.9472149517114368,
      -0.8206094894540971,
      -0.058483782795966055,
      0.0058603805003617625,
      0.05326755638593859,
      -0.42345855495568785,
      0.25549203708815266,
      0.13528120607206795,
      -2.1393706484640336
    ],
    [
      0.0771425764190025,
      0.011577078719178851,
      0.03315385092067883,
      0.035380753083969436,
      -0.8976765483633733,
      -0.09338222422441307,
      0.2746990703451186,
      0.45533682848592394,
      -0.046419863722761114,
      -0.02826752613722875,
      -22.518600632994183,
      -1.137050421588333,
      -0.14627651607570474,
      1.2047899686210748,
      -0.1185687161116535,
      -0.10234022404878483,
      -0.8223397465132337,
      0.5615781857820982,
      -0.09320989778888866,
      1.9219407117556346
    ],
    [
      -0.0994530641768053,
      -0.055574791203759674,
      0.15326811250222624,
      0.005726645476163101,
      -0.2605953786927661,
      1.071969540996637,
      0.22413415018917396,
      0.22545955539866733,
      -0.2424015196247717,
      -0.3495985370569837,
      -47.15317885567522,
      -0.4351827225779255,
      0.42399314751710687,
      0.3925812027200394,
      0.06535606000588999,
      0.5709375340594044,
      0.4691861393737236,
      0.6519345166164311,
      -1.3573928176531833,
      -2.147329042170951
    ],
    [
      -0.25015139124008223,
      -0.05569117728977396,
      0.02809586261625147,
      -0.030924398767992432,
      0.3110471800278714,
      -0.126408347825623,
      -0.5153462041122797,
      -0.11907215872919284,
      0.016838422804199282,
      -0.09782024512942036,
      -9.09285300162621,
      -0.880345297434301,
      -0.4692748919132349,
      -0.21470160155126408,
      0.06933440149708944,
      -0.047247285194030327,
      0.856966786904021,
      0.809357841360861,
      -1.318511037280704,
      1.691479909622009
    ]
  ],
  "biases": [
    -2.7027522876956853,
    -1.9303155874598845,
    -3.420566322124582,
    -2.3500701733642066,
    -3.432600241156276,
    -2.1128296574302405,
    0.012523288754612505
  ],
  "normalization": {
    "featureMean": [
      1.3609243697478992,
      2.359033613445378,
      1.7168067226890755,
      10.140105042016819,
      0.04285714285714286,
      0.19369747899159664,
      0.3888655462184874,
      0.44474789915966384,
      0.20147058823529412,
      0.44516806722689073,
      0.0011478371416611959,
      0.7970814877275033,
      0.35714120205509853,
      0.8411586406453662,
      0,
      0.013025210084033614,
      0.03865546218487395,
      0.010714285714285714,
      0.013235294117647059,
      0.016281512605042008
    ],
    "featureStd": [
      0.7754006734354312,
      2.2959322612938355,
      0.745329359008615,
      5.343656687670799,
      0.20253495541083377,
      0.39519459209849506,
      0.48749270064554945,
      0.49693782845818424,
      0.4010987288828373,
      0.49698436509447935,
      0.0012630534175162196,
      0.12339309413633272,
      0.19610022477697334,
      0.1672527036335977,
      1,
      0.11338233542443855,
      0.19277244986809705,
      0.1029538236099963,
      0.11428088688520203,
      0.0621535486339763
    ]
  },
  "classWeights": [
    0.9523809523809523,
    0.8,
    0.8,
    1.1428571428571428,
    1.6111111111111112,
    0.8,
    1.1428571428571428
  ],
  "confusionMatrix": [
    [
      3,
      13,
      34,
      62,
      0,
      13,
      1
    ],
    [
      5,
      21,
      47,
      63,
      0,
      12,
      2
    ],
    [
      2,
      5,
      89,
      24,
      0,
      21,
      9
    ],
    [
      4,
      8,
      14,
      67,
      0,
      11,
      1
    ],
    [
      0,
      0,
      33,
      5,
      0,
      15,
      1
    ],
    [
      1,
      6,
      27,
      0,
      0,
      109,
      7
    ],
    [
      0,
      6,
      13,
      33,
      0,
      32,
      21
    ]
  ]
}